-9.112256020307540894e-02 3.019884824752807617e-01 -4.444605112075805664e-02 -6.825885176658630371e-01 -1.133622527122497559e-01 -2.137899696826934814e-01 -6.288253664970397949e-01 -5.101192370057106018e-02 -6.238282918930053711e-01 -6.140689849853515625e-01 -2.706966549158096313e-02 -1.100972667336463928e-01 -1.399774998426437378e-01 -4.294681549072265625e-01 -6.471325755119323730e-01 -6.901202201843261719e-01 -3.341213464736938477e-01 2.972576916217803955e-01 -2.400179952383041382e-02 1.651390045881271362e-01 2.828288078308105469e-01 3.141229972243309021e-02 5.227318033576011658e-02 -4.930388927459716797e-02 -1.695796698331832886e-01 2.132974267005920410e-01 5.612962245941162109e-01 3.389427363872528076e-01 -2.884245812892913818e-01 3.357271850109100342e-01 -2.688241899013519287e-01 1.994978636503219604e-02 -2.582952678203582764e-01 1.841438412666320801e-01 -2.577946782112121582e-01 7.538284361362457275e-02 4.690493345260620117e-01 -1.739483773708343506e-01 3.436367213726043701e-01 -1.007099300622940063e-01 2.776377499103546143e-01 -3.888539373874664307e-01 1.255384236574172974e-01 -3.103238940238952637e-01 -3.023879528045654297e-01 -5.702557042241096497e-02 -2.742368280887603760e-01 -3.609975874423980713e-01
