1.937872171401977539e-01 1.653461158275604248e-01 2.392030060291290283e-01 3.738680183887481689e-01 4.353044629096984863e-01 3.457258343696594238e-01 2.065348476171493530e-01 -6.468030065298080444e-02 2.915588915348052979e-01 5.154873132705688477e-01 1.462374329566955566e-01 4.706944525241851807e-01 3.191159069538116455e-01 1.491475850343704224e-01 2.588703334331512451e-01 4.151247143745422363e-01 -1.261565536260604858e-01 1.840338855981826782e-02 -1.363758891820907593e-01 2.616537511348724365e-01 -2.213755249977111816e-01 1.278670281171798706e-01 -3.531201481819152832e-01 -5.361914262175559998e-02 -3.542573750019073486e-01 -1.761776357889175415e-01 -5.403210222721099854e-02 5.399139970541000366e-02 1.054649502038955688e-01 -2.827358841896057129e-01 -1.540226209908723831e-02 2.334984764456748962e-02 -2.093012630939483643e-01 -6.195293739438056946e-02 3.013226948678493500e-02 -1.532848477363586426e-01 -3.572508394718170166e-01 7.093817740678787231e-02 -5.774459987878799438e-02 -2.129138633608818054e-02 -5.248827487230300903e-02 -2.572095394134521484e-01 1.204619258642196655e-01 1.075540632009506226e-01 -1.101731732487678528e-01 1.597024947404861450e-01 1.248561069369316101e-01 -4.494586214423179626e-02
-5.053406357765197754e-01 -2.888661623001098633e-02 -1.233772262930870056e-01 -3.109453916549682617e-01 -2.330727279186248779e-01 -1.977480500936508179e-01 -1.691447198390960693e-01 2.831732630729675293e-01 -7.818240523338317871e-01 -3.280988931655883789e-01 -1.074510142207145691e-01 -3.202711045742034912e-01 -3.549363017082214355e-01 -5.344215407967567444e-02 -5.128020644187927246e-01 -4.701000452041625977e-01 -1.623987592756748199e-02 -1.232492700219154358e-01 -1.357483267784118652e-01 2.145907282829284668e-01 2.890239842236042023e-02 -1.007752269506454468e-01 1.464683115482330322e-01 -1.320282220840454102e-01 1.407994776964187622e-01 9.441277384757995605e-02 2.558296620845794678e-01 5.481564998626708984e-02 -1.961489766836166382e-01 2.843179106712341309e-01 -2.753770351409912109e-01 -1.453946530818939209e-01 -7.909497246146202087e-03 3.086753934621810913e-02 1.323770731687545776e-01 -1.283687055110931396e-01 -5.814189091324806213e-02 -1.124505549669265747e-01 -2.760306596755981445e-01 -6.322181969881057739e-02 -2.571613788604736328e-01 -2.197224833071231842e-02 -1.400598138570785522e-01 1.321176439523696899e-01 2.134714424610137939e-01 2.803253829479217529e-01 1.015152037143707275e-01 2.437936700880527496e-02
3.216392397880554199e-01 -1.938247978687286377e-01 3.041873872280120850e-01 2.480932623147964478e-01 2.948609292507171631e-01 6.187383532524108887e-01 3.662493526935577393e-01 -2.654317617416381836e-01 5.350614190101623535e-01 5.149197578430175781e-01 4.019929468631744385e-01 2.942380309104919434e-01 3.253578841686248779e-01 -1.226479560136795044e-02 8.143553137779235840e-01 4.149689376354217529e-01 -1.170772612094879150e-01 -1.393462270498275757e-01 3.905040025711059570e-02 1.022365018725395203e-01 -1.185924783349037170e-01 -1.225416958332061768e-01 -6.372790038585662842e-02 -1.845625578425824642e-03 -3.008918762207031250e-01 9.881090372800827026e-02 -3.457373082637786865e-01 1.348180603235960007e-02 -7.663834095001220703e-02 -3.282583951950073242e-01 -6.674245744943618774e-02 -8.626464009284973145e-02 1.681406646966934204e-01 -1.104254946112632751e-01 5.251692980527877808e-02 -2.198530919849872589e-02 -5.717308446764945984e-02 7.156897336244583130e-02 -1.086911782622337341e-01 -8.780059218406677246e-02 1.307962238788604736e-01 4.763900116086006165e-02 4.826427623629570007e-02 -6.926263868808746338e-02 3.542841076850891113e-01 -2.356108725070953369e-01 2.041371762752532959e-01 1.460203379392623901e-01
-2.500495016574859619e-01 3.342272937297821045e-01 -2.299924194812774658e-01 -1.735947430133819580e-01 2.027633786201477051e-01 -2.867394387722015381e-01 -1.208976954221725464e-01 -1.833998598158359528e-02 -1.119140814989805222e-02 -3.064877092838287354e-01 1.583833247423171997e-01 -1.401897519826889038e-01 -3.500366508960723877e-01 -1.030267253518104553e-01 -3.206812143325805664e-01 -2.515396177768707275e-01 7.138623297214508057e-02 -4.926643148064613342e-02 -1.353236287832260132e-01 -2.395240403711795807e-02 2.405575066804885864e-01 1.502122282981872559e-01 -1.864378154277801514e-01 -1.140462234616279602e-01 2.037017233669757843e-02 1.207080557942390442e-01 2.340972572565078735e-01 -1.055257674306631088e-02 1.897680573165416718e-02 3.187764585018157959e-01 2.034849524497985840e-01 -2.315662354230880737e-01 1.637804806232452393e-01 -1.644606739282608032e-01 -1.139385905116796494e-02 -4.608025774359703064e-02 2.002684026956558228e-01 -3.319891914725303650e-02 -1.243395805358886719e-01 3.906918317079544067e-02 1.885240152478218079e-02 -9.145700186491012573e-02 9.855408221483230591e-02 1.784393563866615295e-02 9.554521739482879639e-02 -3.171552717685699463e-01 6.278528273105621338e-02 1.774861663579940796e-01
-4.282976388931274414e-01 -7.363554835319519043e-02 -4.075239598751068115e-01 -1.954707950353622437e-01 -2.831291854381561279e-01 -7.221521735191345215e-01 -5.087873339653015137e-01 4.344696402549743652e-01 -3.876408636569976807e-01 -4.249108135700225830e-01 -1.664164066314697266e-01 -5.866058468818664551e-01 -6.646880507469177246e-01 -9.710163623094558716e-02 -5.104016065597534180e-01 -4.906227290630340576e-01 -3.864656761288642883e-02 2.114106528460979462e-02 3.767301514744758606e-02 1.101602017879486084e-01 -4.073081538081169128e-02 4.406257718801498413e-02 -1.911798119544982910e-02 -3.597777187824249268e-01 -9.940541535615921021e-02 1.464779973030090332e-01 -3.890672326087951660e-02 1.490099877119064331e-01 -1.639880239963531494e-01 1.701149903237819672e-02 1.484858393669128418e-01 3.180209081619977951e-03 2.423257529735565186e-01 1.546044796705245972e-01 -3.462872654199600220e-02 -1.819833368062973022e-01 4.102542996406555176e-02 8.196535706520080566e-02 -3.626134619116783142e-02 5.244437232613563538e-02 -1.572721004486083984e-01 2.657228112220764160e-01 -1.525401473045349121e-01 -4.050537012517452240e-03 -5.447545275092124939e-02 -7.892263121902942657e-03 -3.463337570428848267e-02 -3.022897243499755859e-01
1.357528865337371826e-01 1.851059612818062305e-03 2.025277912616729736e-01 1.083095669746398926e-01 2.145526111125946045e-01 6.212564110755920410e-01 -4.565009102225303650e-02 -3.966456949710845947e-01 3.554272651672363281e-01 1.410932987928390503e-01 1.930103600025177002e-01 4.417161345481872559e-01 4.316587448120117188e-01 1.218489333987236023e-01 5.274544358253479004e-01 3.545845448970794678e-01 -5.182160064578056335e-02 -1.014233008027076721e-01 5.769840255379676819e-02 8.912889286875724792e-03 -9.078784286975860596e-02 -1.832891702651977539e-01 -7.037176936864852905e-02 1.930033564567565918e-01 -7.729557156562805176e-02 1.392928659915924072e-01 -1.400521993637084961e-01 2.395169585943222046e-01 8.219352364540100098e-02 1.464231461286544800e-01 -1.476683616638183594e-01 -4.982312396168708801e-02 1.002745777368545532e-01 7.755313068628311157e-02 8.592771738767623901e-02 -2.882275879383087158e-01 -1.111217811703681946e-01 -1.932334154844284058e-02 2.155171185731887817e-01 1.124752238392829895e-01 -1.297495421022176743e-02 1.375538706779479980e-01 1.971122175455093384e-01 8.968523889780044556e-02 -3.484289944171905518e-01 -9.992736577987670898e-02 6.814778596162796021e-02 -1.609983742237091064e-01
-3.469712436199188232e-01 4.385425895452499390e-02 -3.620455563068389893e-01 -2.047048509120941162e-01 -3.138495385646820068e-01 -4.606857299804687500e-01 -2.638393342494964600e-01 1.888614147901535034e-01 -3.442101180553436279e-01 -2.172756195068359375e-01 2.488349676132202148e-01 -5.365502238273620605e-01 -3.513215780258178711e-01 -1.330384016036987305e-01 -2.913968563079833984e-01 -3.242301046848297119e-01 -7.919535040855407715e-03 5.698764696717262268e-02 1.409505307674407959e-01 8.138498663902282715e-02 -1.656923294067382812e-01 1.706731170415878296e-01 2.064691632986068726e-01 6.972976773977279663e-02 -5.782896280288696289e-02 -2.553382813930511475e-01 2.999255359172821045e-01 -2.950961589813232422e-01 2.125517092645168304e-02 2.247234135866165161e-01 -2.240965329110622406e-02 -1.546768099069595337e-01 -2.802923619747161865e-01 -1.189523786306381226e-01 -8.477585017681121826e-02 -2.147955149412155151e-01 3.655578792095184326e-01 -2.100258469581604004e-01 5.241679772734642029e-02 1.688438951969146729e-01 -1.558163166046142578e-01 1.853958368301391602e-01 -6.544078141450881958e-02 -1.244745105504989624e-01 -1.306908577680587769e-01 -2.574690617620944977e-02 1.318050324916839600e-01 -2.637859992682933807e-02
1.037893518805503845e-01 4.699406772851943970e-02 5.289448425173759460e-02 -1.400206238031387329e-02 1.882154941558837891e-01 9.600077569484710693e-02 2.433353066444396973e-01 -7.430574297904968262e-02 1.282374560832977295e-01 6.080265715718269348e-02 2.389298230409622192e-01 1.006367430090904236e-01 3.527240455150604248e-01 -7.618150860071182251e-02 4.150995612144470215e-02 -6.556030362844467163e-02 9.464425593614578247e-02 1.731235980987548828e-01 7.736054062843322754e-02 9.721727669239044189e-02 -5.471784248948097229e-02 -1.637807935476303101e-01 1.287274956703186035e-01 -2.090959995985031128e-01 6.415328942239284515e-03 -8.754938095808029175e-02 6.353487260639667511e-04 -2.678731679916381836e-01 -1.022597700357437134e-01 -2.108412981033325195e-01 -2.948099374771118164e-01 -1.092907860875129700e-01 2.825910747051239014e-01 1.294687837362289429e-01 2.268797457218170166e-01 1.569887399673461914e-01 -2.680987119674682617e-01 1.248963735997676849e-02 3.507463261485099792e-02 4.375669360160827637e-02 2.063374817371368408e-01 4.491176828742027283e-02 3.159262835979461670e-01 -3.246627748012542725e-02 3.664322569966316223e-02 1.746197938919067383e-01 1.546164900064468384e-01 -1.485183984041213989e-01
-2.040244042873382568e-01 -1.808653771877288818e-02 -5.622074604034423828e-01 -5.188047885894775391e-01 -2.793021798133850098e-01 -2.620534300804138184e-01 -4.261976480484008789e-01 3.677355349063873291e-01 -4.786712825298309326e-01 -4.111446142196655273e-01 -2.220929116010665894e-01 -1.812078356742858887e-01 -3.884500563144683838e-01 -3.353618085384368896e-01 -4.639883041381835938e-01 -1.966092288494110107e-01 2.272359430789947510e-01 1.737719625234603882e-01 8.630246669054031372e-02 -7.203357666730880737e-02 -2.870717048645019531e-01 9.667025506496429443e-02 -5.570755153894424438e-02 3.716050460934638977e-02 1.399142295122146606e-02 -2.443086169660091400e-02 2.432117462158203125e-01 2.179621160030364990e-02 -8.840654790401458740e-02 1.505274474620819092e-01 -5.609843507409095764e-02 2.836917713284492493e-02 1.327744685113430023e-02 1.150699406862258911e-01 7.677976042032241821e-02 1.484936475753784180e-01 7.107113488018512726e-03 6.196810305118560791e-02 -2.253500521183013916e-01 1.683097779750823975e-01 -3.303064107894897461e-01 -7.229212671518325806e-02 -3.163160681724548340e-01 -2.985176742076873779e-01 -1.075027277693152428e-03 -2.150402367115020752e-01 5.914849787950515747e-02 1.563377678394317627e-02
2.191164046525955200e-01 -2.685866951942443848e-01 4.721936881542205811e-01 3.934423029422760010e-01 5.683642625808715820e-01 2.663545608520507812e-01 3.300613164901733398e-01 -1.335266232490539551e-01 4.095920920372009277e-01 5.440990924835205078e-01 2.033191174268722534e-01 3.103275597095489502e-01 5.729441642761230469e-01 4.049424827098846436e-02 5.952847599983215332e-01 1.721055656671524048e-01 2.935330569744110107e-01 -1.378249973058700562e-01 -5.685791745781898499e-02 -1.511123925447463989e-01 -1.748694032430648804e-01 8.572499454021453857e-02 -1.271219402551651001e-01 2.025089412927627563e-01 4.019822180271148682e-02 4.612439870834350586e-02 -3.336483538150787354e-01 1.013636663556098938e-01 5.058726295828819275e-02 -1.273322105407714844e-01 1.314252614974975586e-01 -3.479285538196563721e-01 -3.294791653752326965e-02 2.895689308643341064e-01 1.164811477065086365e-01 1.669700741767883301e-01 -4.137028008699417114e-02 -3.996512293815612793e-02 -7.421851903200149536e-02 -2.353226989507675171e-01 2.255687303841114044e-02 -4.370514303445816040e-02 1.237648800015449524e-01 8.345540612936019897e-02 -3.058754205703735352e-01 7.996558211743831635e-03 1.038221195340156555e-01 6.817796826362609863e-02
-1.037484854459762573e-01 1.731120944023132324e-01 1.973383128643035889e-01 -2.185222357511520386e-01 3.099683821201324463e-01 -1.781158447265625000e-01 -3.005968406796455383e-02 -7.380189001560211182e-02 -8.592744171619415283e-02 -1.944350078701972961e-02 3.736009076237678528e-02 8.341797441244125366e-02 2.160315215587615967e-01 1.620246767997741699e-01 3.376756012439727783e-01 1.305131614208221436e-01 -1.050974279642105103e-01 -1.702558696269989014e-01 -1.290487647056579590e-01 -4.001479223370552063e-02 -7.852629572153091431e-02 -2.351647987961769104e-02 1.700872741639614105e-02 1.545333564281463623e-01 -3.781634867191314697e-01 -3.780953958630561829e-02 -5.602762475609779358e-02 4.135881736874580383e-02 2.554305642843246460e-02 2.532637715339660645e-01 2.339533567428588867e-01 1.725765615701675415e-01 -1.867568343877792358e-01 -2.732602059841156006e-01 -1.607405394315719604e-01 3.018966913223266602e-01 1.037004292011260986e-01 -2.044473439455032349e-01 4.795649647712707520e-02 5.773404613137245178e-02 1.273368597030639648e-01 5.850695073604583740e-02 -3.168627023696899414e-01 -2.125601172447204590e-01 4.595626145601272583e-02 1.729093305766582489e-02 -1.969986557960510254e-01 -3.347161114215850830e-01
5.783665776252746582e-01 -2.053448706865310669e-01 2.574904263019561768e-01 3.854830265045166016e-01 2.968375086784362793e-01 3.232396543025970459e-01 2.469347417354583740e-01 -1.978567242622375488e-01 5.393801927566528320e-01 5.804559215903282166e-02 1.854742914438247681e-01 4.417788982391357422e-01 2.788957059383392334e-01 -7.803355902433395386e-02 6.465073823928833008e-01 3.769601583480834961e-01 3.563346341252326965e-02 1.196761950850486755e-01 -1.304187625646591187e-01 -2.038349956274032593e-01 -6.084257364273071289e-02 1.561398357152938843e-01 -3.362031280994415283e-02 -1.268993169069290161e-01 -4.339387640357017517e-02 2.044289559125900269e-01 -2.607369422912597656e-01 -1.859453506767749786e-02 -1.114014759659767151e-01 -3.414255380630493164e-02 -1.921818107366561890e-01 -8.583571016788482666e-02 -4.326795935630798340e-01 -1.077917888760566711e-01 9.941864013671875000e-02 -4.027986506116576493e-05 -1.777944266796112061e-01 7.927715033292770386e-02 2.460224181413650513e-01 -1.627236306667327881e-01 -5.118542537093162537e-02 -4.384791105985641479e-02 1.889337301254272461e-01 2.683795690536499023e-01 1.082673072814941406e-01 1.794528663158416748e-01 7.043583691120147705e-02 -6.513977050781250000e-02
3.953204452991485596e-01 -2.731356322765350342e-01 3.577687442302703857e-01 5.394861102104187012e-01 5.563312768936157227e-01 4.443282485008239746e-01 2.192498296499252319e-01 -2.552348971366882324e-01 5.111580491065979004e-01 1.240977048873901367e-01 5.737996473908424377e-02 6.532225012779235840e-01 2.333321869373321533e-01 -1.483775675296783447e-01 3.009152412414550781e-01 2.961983680725097656e-01 -4.404623061418533325e-02 -2.619072620291262865e-04 1.510364711284637451e-01 3.071663677692413330e-01 -1.188836470246315002e-01 -1.456298381090164185e-01 9.685329347848892212e-02 5.260585993528366089e-02 -1.976022124290466309e-01 -5.029611662030220032e-02 -2.052905559539794922e-01 1.228463947772979736e-01 5.540551617741584778e-02 -5.812033079564571381e-03 7.592990994453430176e-02 -5.133945867419242859e-02 -1.333030015230178833e-01 5.507619678974151611e-02 -4.032177850604057312e-02 5.550939962267875671e-02 1.404171884059906006e-01 3.855644492432475090e-03 -1.122084483504295349e-01 9.665722399950027466e-02 2.224472612142562866e-01 2.195406109094619751e-01 6.292317807674407959e-02 -1.283169351518154144e-02 -1.910866238176822662e-02 1.739122867584228516e-01 -1.540003716945648193e-01 2.973067164421081543e-01
2.372454106807708740e-01 -2.214050889015197754e-01 3.550911843776702881e-01 -6.862474977970123291e-02 1.056438460946083069e-01 6.361785531044006348e-02 -1.373291201889514923e-02 1.777846962213516235e-01 1.773654669523239136e-01 1.125547066330909729e-01 -2.644763700664043427e-02 1.773086786270141602e-01 -1.198649778962135315e-02 2.301487475633621216e-01 3.336904048919677734e-01 1.941929608583450317e-01 -5.356821790337562561e-02 -5.844313651323318481e-02 2.617188990116119385e-01 1.036312356591224670e-01 3.235492706298828125e-01 2.187239006161689758e-02 1.804855652153491974e-02 1.439556628465652466e-01 -1.617797762155532837e-01 5.104798078536987305e-02 4.058171808719635010e-02 -3.031479008495807648e-02 8.470461517572402954e-02 6.408924236893653870e-03 1.021307408809661865e-01 2.559668719768524170e-01 -3.235749900341033936e-01 -1.059720814228057861e-01 -3.204368427395820618e-02 1.983067542314529419e-01 2.379860961809754372e-03 -3.624029159545898438e-01 -1.549099832773208618e-01 3.307210206985473633e-01 1.917883604764938354e-01 -2.062149047851562500e-01 4.850222170352935791e-02 -2.276644110679626465e-03 -3.007377386093139648e-01 -4.179704189300537109e-01 1.317944377660751343e-01 -1.729223281145095825e-01
4.137157499790191650e-01 -2.592002451419830322e-01 1.607222259044647217e-01 2.719959020614624023e-01 3.634387850761413574e-01 4.843274950981140137e-01 1.992694437503814697e-01 -1.329555064439773560e-01 3.860839307308197021e-01 2.138242572546005249e-01 -6.788469105958938599e-02 9.744179248809814453e-02 6.806210875511169434e-01 4.197623208165168762e-02 5.389747023582458496e-01 4.318088293075561523e-01 -7.213314622640609741e-02 -1.008769199252128601e-01 -6.207831948995590210e-02 -2.573530375957489014e-02 -5.626358836889266968e-02 -3.216383978724479675e-02 -4.313652589917182922e-02 -8.301296830177307129e-02 2.906323596835136414e-02 -7.276986539363861084e-02 5.787244439125061035e-02 2.290374785661697388e-01 1.803291216492652893e-02 -3.967822492122650146e-01 2.665631473064422607e-01 -7.558447122573852539e-02 1.356244385242462158e-01 -1.593443006277084351e-01 -9.886679053306579590e-02 4.595957696437835693e-03 -7.533681392669677734e-02 -2.588390409946441650e-01 1.340119987726211548e-01 1.963082700967788696e-01 -1.253217309713363647e-01 -1.153630390763282776e-02 2.392106801271438599e-01 1.229285672307014465e-01 2.055243402719497681e-02 2.859584987163543701e-01 1.112586334347724915e-01 2.168570756912231445e-01
1.555729936808347702e-02 -4.025642871856689453e-01 3.894754946231842041e-01 1.654939055442810059e-01 3.156354725360870361e-01 4.480436444282531738e-01 6.493248939514160156e-01 -3.885148325935006142e-03 6.482471227645874023e-01 2.160435467958450317e-01 3.678946495056152344e-01 5.224600434303283691e-01 1.889277696609497070e-01 9.810468554496765137e-02 4.156735837459564209e-01 3.858519494533538818e-01 -1.360497176647186279e-01 -6.675294041633605957e-02 -2.377799898386001587e-01 -3.389719501137733459e-02 6.354511529207229614e-02 -8.174759149551391602e-02 -1.908209025859832764e-01 1.031910181045532227e-01 1.833805441856384277e-01 -2.198525816202163696e-01 -2.320731878280639648e-01 4.990388825535774231e-02 6.711479276418685913e-02 -1.910821199417114258e-01 1.372239179909229279e-02 9.986161254346370697e-03 -4.800057783722877502e-02 -6.183581426739692688e-02 4.633720219135284424e-02 6.832771934568881989e-03 -8.473643660545349121e-02 4.812264814972877502e-02 2.265071421861648560e-01 1.037186533212661743e-01 -1.768881082534790039e-01 2.562921866774559021e-02 8.381889015436172485e-02 -1.904507428407669067e-01 -7.285733520984649658e-02 2.686999365687370300e-02 -1.704567223787307739e-01 1.545447390526533127e-02
