-4.538441300392150879e-01 1.727222055196762085e-01 -3.895012438297271729e-01 -3.853433132171630859e-01 -3.955035209655761719e-01 -4.260399639606475830e-01 -3.707034289836883545e-01 2.971305549144744873e-01 -4.521405696868896484e-01 -4.237855970859527588e-01 -2.249534726142883301e-01 -4.193115830421447754e-01 -4.350419938564300537e-01 -9.979749470949172974e-02 -4.612716436386108398e-01 -4.495782554149627686e-01 4.819036647677421570e-02 3.182215988636016846e-02 -2.198523655533790588e-02 -2.109670080244541168e-02 1.104045882821083069e-01 3.258121758699417114e-02 1.924476772546768188e-02 -3.457012586295604706e-03 -3.216093406081199646e-02 -5.178985372185707092e-02 1.482225358486175537e-01 -8.906022645533084869e-03 -1.007246002554893494e-01 7.531056553125381470e-02 -3.939522802829742432e-02 5.005713086575269699e-03 -2.359900623559951782e-03 -1.419289968907833099e-03 -1.881459378637373447e-03 5.400450434535741806e-03 1.709803007543087006e-02 -2.445938996970653534e-03 -2.403561258688569069e-03 5.368864629417657852e-03 3.961209207773208618e-03 -1.436636433936655521e-03 5.869578104466199875e-03 -2.937965327873826027e-03 -1.618191017769277096e-03 7.546781562268733978e-03 -1.205125154228881001e-04 4.458764742594212294e-04
-4.538441300392150879e-01 1.727222055196762085e-01 -3.895012438297271729e-01 -3.853433132171630859e-01 -3.955035209655761719e-01 -4.260399639606475830e-01 -3.707034289836883545e-01 2.971305549144744873e-01 -4.521405696868896484e-01 -4.237855970859527588e-01 -2.249534726142883301e-01 -4.193115830421447754e-01 -4.350419938564300537e-01 -9.979749470949172974e-02 -4.612716436386108398e-01 -4.495782554149627686e-01 4.819036647677421570e-02 3.182215988636016846e-02 -2.198523655533790588e-02 -2.109670080244541168e-02 1.104045882821083069e-01 3.258121758699417114e-02 1.924476772546768188e-02 -3.457012586295604706e-03 -3.216093406081199646e-02 -5.178985372185707092e-02 1.482225358486175537e-01 -8.906022645533084869e-03 -1.007246002554893494e-01 7.531056553125381470e-02 -3.939522802829742432e-02 5.005713086575269699e-03 2.534304745495319366e-03 -1.690811477601528168e-03 -3.852297668345272541e-04 7.961680181324481964e-03 2.758767083287239075e-02 -2.344857202842831612e-03 -3.112005768343806267e-03 4.931081086397171021e-03 1.468175207264721394e-03 -4.527302924543619156e-03 -1.155035570263862610e-02 -6.327016279101371765e-03 5.927233723923563957e-04 -4.376837983727455139e-03 4.578663036227226257e-03 5.689262761734426022e-04
